<?xml version="1.0"?>
<opencv_storage>
<cascade>
  <stageType>BOOST</stageType>
  <featureType>HAAR</featureType>
  <height>20</height>
  <width>20</width>
  <stageParams>
    <boostType>GAB</boostType>
    <minHitRate>9.9900001287460327e-01</minHitRate>
    <maxFalseAlarm>5.0000000745058060e-02</maxFalseAlarm>
    <weightTrimRate>9.4999999999999996e-01</weightTrimRate>
    <maxDepth>1</maxDepth>
    <maxWeakCount>100</maxWeakCount></stageParams>
  <featureParams>
    <maxCatCount>0</maxCatCount>
    <featSize>1</featSize>
    <mode>ALL</mode></featureParams>
  <stageNum>3</stageNum>
  <stages>
    <!-- stage 0 -->
    <_>
      <maxWeakCount>7</maxWeakCount>
      <stageThreshold>-2.9140326380729675e-01</stageThreshold>
      <weakClassifiers>
        <_>
          <internalNodes>
            0 -1 6 3.8905008696019650e-03</internalNodes>
          <leafValues>
            -5.5996823310852051e-01 9.5141702890396118e-01</leafValues></_>
        <_>
          <internalNodes>
            0 -1 13 1.4790654182434082e-02</internalNodes>
          <leafValues>
            -5.8988207578659058e-01 8.8636791706085205e-01</leafValues></_>
        <_>
          <internalNodes>
            0 -1 2 1.3358299620449543e-02</internalNodes>
          <leafValues>
            -9.4712430238723755e-01 5.6699496507644653e-01</leafValues></_>
        <_>
          <internalNodes>
            0 -1 8 -2.1582797169685364e-02</internalNodes>
          <leafValues>
            7.6115620136260986e-01 -6.2940549850463867e-01</leafValues></_>
        <_>
          <internalNodes>
            0 -1 14 -5.9286560863256454e-03</internalNodes>
          <leafValues>
            9.8493194580078125e-01 -4.6999084949493408e-01</leafValues></_>
        <_>
          <internalNodes>
            0 -1 10 4.1097970679402351e-03</internalNodes>
          <leafValues>
            -5.1722437143325806e-01 9.2596155405044556e-01</leafValues></_>
        <_>
          <internalNodes>
            0 -1 0 1.8680388107895851e-02</internalNodes>
          <leafValues>
            -8.9954251050949097e-01 5.9312671422958374e-01</leafValues></_></weakClassifiers></_>
    <!-- stage 1 -->
    <_>
      <maxWeakCount>6</maxWeakCount>
      <stageThreshold>-1.0275377035140991e+00</stageThreshold>
      <weakClassifiers>
        <_>
          <internalNodes>
            0 -1 5 -5.4155755788087845e-03</internalNodes>
          <leafValues>
            9.2826396226882935e-01 -4.9654641747474670e-01</leafValues></_>
        <_>
          <internalNodes>
            0 -1 1 2.1344963461160660e-02</internalNodes>
          <leafValues>
            -9.6408289670944214e-01 5.1664960384368896e-01</leafValues></_>
        <_>
          <internalNodes>
            0 -1 7 4.7906329855322838e-03</internalNodes>
          <leafValues>
            -5.8874446153640747e-01 8.4254390001296997e-01</leafValues></_>
        <_>
          <internalNodes>
            0 -1 3 -2.4392228573560715e-02</internalNodes>
          <leafValues>
            4.6763527393341064e-01 -9.2694032192230225e-01</leafValues></_>
        <_>
          <internalNodes>
            0 -1 9 -1.9216421991586685e-02</internalNodes>
          <leafValues>
            9.3319410085678101e-01 -4.4529518485069275e-01</leafValues></_>
        <_>
          <internalNodes>
            0 -1 16 -2.5894269347190857e-02</internalNodes>
          <leafValues>
            9.6278315782546997e-01 -5.4076993465423584e-01</leafValues></_></weakClassifiers></_>
    <!-- stage 2 -->
    <_>
      <maxWeakCount>8</maxWeakCount>
      <stageThreshold>-4.0731793269515038e-03</stageThreshold>
      <weakClassifiers>
        <_>
          <internalNodes>
            0 -1 4 5.3470060229301453e-03</internalNodes>
          <leafValues>
            4.2547032237052917e-01 -9.5145630836486816e-01</leafValues></_>
        <_>
          <internalNodes>
            0 -1 15 -5.9971353039145470e-03</internalNodes>
          <leafValues>
            8.8289415836334229e-01 -5.2058029174804688e-01</leafValues></_>
        <_>
          <internalNodes>
            0 -1 11 -1.7635766416788101e-02</internalNodes>
          <leafValues>
            9.7729671001434326e-01 -4.4261002540588379e-01</leafValues></_>
        <_>
          <internalNodes>
            0 -1 18 -1.9181843526894227e-05</internalNodes>
          <leafValues>
            -9.9219524860382080e-01 5.1179307699203491e-01</leafValues></_>
        <_>
          <internalNodes>
            0 -1 12 -1.7837375402450562e-02</internalNodes>
          <leafValues>
            9.6596878767013550e-01 -5.2052342891693115e-01</leafValues></_>
        <_>
          <internalNodes>
            0 -1 17 -6.3541373237967491e-03</internalNodes>
          <leafValues>
            9.4907808303833008e-01 -4.5671215653419495e-01</leafValues></_>
        <_>
          <internalNodes>
            0 -1 19 3.7557481846306473e-05</internalNodes>
          <leafValues>
            5.0950419902801514e-01 -1.</leafValues></_>
        <_>
          <internalNodes>
            0 -1 19 -1.8870359781431034e-05</internalNodes>
          <leafValues>
            -1. 4.8958510160446167e-01</leafValues></_></weakClassifiers></_></stages>
  <features>
    <_>
      <rects>
        <_>
          0 0 20 5 -1.</_>
        <_>
          5 0 10 5 2.</_></rects>
      <tilted>0</tilted></_>
    <_>
      <rects>
        <_>
          0 0 20 6 -1.</_>
        <_>
          0 3 20 3 2.</_></rects>
      <tilted>0</tilted></_>
    <_>
      <rects>
        <_>
          0 15 20 5 -1.</_>
        <_>
          5 15 10 5 2.</_></rects>
      <tilted>0</tilted></_>
    <_>
      <rects>
        <_>
          1 14 19 6 -1.</_>
        <_>
          1 17 19 3 2.</_></rects>
      <tilted>0</tilted></_>
    <_>
      <rects>
        <_>
          2 9 14 2 -1.</_>
        <_>
          9 9 7 2 2.</_></rects>
      <tilted>0</tilted></_>
    <_>
      <rects>
        <_>
          5 10 1 3 -1.</_>
        <_>
          5 11 1 1 3.</_></rects>
      <tilted>0</tilted></_>
    <_>
      <rects>
        <_>
          6 8 3 1 -1.</_>
        <_>
          7 8 1 1 3.</_></rects>
      <tilted>0</tilted></_>
    <_>
      <rects>
        <_>
          7 6 3 1 -1.</_>
        <_>
          8 6 1 1 3.</_></rects>
      <tilted>0</tilted></_>
    <_>
      <rects>
        <_>
          7 9 6 3 -1.</_>
        <_>
          9 10 2 1 9.</_></rects>
      <tilted>0</tilted></_>
    <_>
      <rects>
        <_>
          7 10 10 2 -1.</_>
        <_>
          7 10 5 1 2.</_>
        <_>
          12 11 5 1 2.</_></rects>
      <tilted>0</tilted></_>
    <_>
      <rects>
        <_>
          7 13 3 1 -1.</_>
        <_>
          8 13 1 1 3.</_></rects>
      <tilted>0</tilted></_>
    <_>
      <rects>
        <_>
          8 6 3 2 -1.</_>
        <_>
          9 6 1 2 3.</_></rects>
      <tilted>0</tilted></_>
    <_>
      <rects>
        <_>
          8 7 2 10 -1.</_>
        <_>
          8 7 1 5 2.</_>
        <_>
          9 12 1 5 2.</_></rects>
      <tilted>0</tilted></_>
    <_>
      <rects>
        <_>
          9 7 3 3 -1.</_>
        <_>
          10 8 1 1 9.</_></rects>
      <tilted>0</tilted></_>
    <_>
      <rects>
        <_>
          9 13 3 1 -1.</_>
        <_>
          10 13 1 1 3.</_></rects>
      <tilted>0</tilted></_>
    <_>
      <rects>
        <_>
          11 13 3 1 -1.</_>
        <_>
          12 13 1 1 3.</_></rects>
      <tilted>0</tilted></_>
    <_>
      <rects>
        <_>
          12 9 3 3 -1.</_>
        <_>
          13 10 1 1 9.</_></rects>
      <tilted>0</tilted></_>
    <_>
      <rects>
        <_>
          13 7 1 3 -1.</_>
        <_>
          13 8 1 1 3.</_></rects>
      <tilted>0</tilted></_>
    <_>
      <rects>
        <_>
          17 0 2 2 -1.</_>
        <_>
          17 1 2 1 2.</_></rects>
      <tilted>0</tilted></_>
    <_>
      <rects>
        <_>
          19 0 1 2 -1.</_>
        <_>
          19 1 1 1 2.</_></rects>
      <tilted>0</tilted></_></features></cascade>
</opencv_storage>
