<?xml version="1.0"?>
<opencv_storage>
<cascade>
  <stageType>BOOST</stageType>
  <featureType>HAAR</featureType>
  <height>20</height>
  <width>20</width>
  <stageParams>
    <boostType>GAB</boostType>
    <minHitRate>9.9900001287460327e-01</minHitRate>
    <maxFalseAlarm>5.0000000745058060e-02</maxFalseAlarm>
    <weightTrimRate>9.4999999999999996e-01</weightTrimRate>
    <maxDepth>1</maxDepth>
    <maxWeakCount>100</maxWeakCount></stageParams>
  <featureParams>
    <maxCatCount>0</maxCatCount>
    <featSize>1</featSize>
    <mode>ALL</mode></featureParams>
  <stageNum>3</stageNum>
  <stages>
    <!-- stage 0 -->
    <_>
      <maxWeakCount>7</maxWeakCount>
      <stageThreshold>-5.2068674564361572e-01</stageThreshold>
      <weakClassifiers>
        <_>
          <internalNodes>
            0 -1 8 3.8899208884686232e-03</internalNodes>
          <leafValues>
            -5.8387094736099243e-01 9.5263159275054932e-01</leafValues></_>
        <_>
          <internalNodes>
            0 -1 13 1.1422170326113701e-02</internalNodes>
          <leafValues>
            -6.3759207725524902e-01 8.5760992765426636e-01</leafValues></_>
        <_>
          <internalNodes>
            0 -1 1 1.7184183001518250e-02</internalNodes>
          <leafValues>
            -8.8815748691558838e-01 5.7094514369964600e-01</leafValues></_>
        <_>
          <internalNodes>
            0 -1 10 -1.2014731764793396e-02</internalNodes>
          <leafValues>
            5.8189922571182251e-01 -8.2549363374710083e-01</leafValues></_>
        <_>
          <internalNodes>
            0 -1 14 -6.4429575577378273e-03</internalNodes>
          <leafValues>
            9.9506008625030518e-01 -5.2347069978713989e-01</leafValues></_>
        <_>
          <internalNodes>
            0 -1 11 5.0126854330301285e-03</internalNodes>
          <leafValues>
            -5.1830136775970459e-01 9.5328778028488159e-01</leafValues></_>
        <_>
          <internalNodes>
            0 -1 20 2.0196841433062218e-05</internalNodes>
          <leafValues>
            5.8970391750335693e-01 -1.</leafValues></_></weakClassifiers></_>
    <!-- stage 1 -->
    <_>
      <maxWeakCount>9</maxWeakCount>
      <stageThreshold>-6.6180592775344849e-01</stageThreshold>
      <weakClassifiers>
        <_>
          <internalNodes>
            0 -1 9 3.9363391697406769e-03</internalNodes>
          <leafValues>
            -6.0066831111907959e-01 8.9539229869842529e-01</leafValues></_>
        <_>
          <internalNodes>
            0 -1 21 -3.5141085390932858e-05</internalNodes>
          <leafValues>
            -9.3524610996246338e-01 6.0954207181930542e-01</leafValues></_>
        <_>
          <internalNodes>
            0 -1 6 1.7590399831533432e-02</internalNodes>
          <leafValues>
            -6.0581505298614502e-01 8.7451738119125366e-01</leafValues></_>
        <_>
          <internalNodes>
            0 -1 22 -1.9547444026102312e-05</internalNodes>
          <leafValues>
            -1. 4.9510347843170166e-01</leafValues></_>
        <_>
          <internalNodes>
            0 -1 15 3.3807470463216305e-03</internalNodes>
          <leafValues>
            -5.6791466474533081e-01 8.5126131772994995e-01</leafValues></_>
        <_>
          <internalNodes>
            0 -1 17 -6.0733435675501823e-03</internalNodes>
          <leafValues>
            9.6883630752563477e-01 -5.4398840665817261e-01</leafValues></_>
        <_>
          <internalNodes>
            0 -1 4 5.0935082137584686e-02</internalNodes>
          <leafValues>
            5.3559631109237671e-01 -9.9379593133926392e-01</leafValues></_>
        <_>
          <internalNodes>
            0 -1 18 1.9097095355391502e-02</internalNodes>
          <leafValues>
            -5.3278207778930664e-01 9.9568319320678711e-01</leafValues></_>
        <_>
          <internalNodes>
            0 -1 2 -4.2115911841392517e-02</internalNodes>
          <leafValues>
            -9.9344736337661743e-01 5.9784835577011108e-01</leafValues></_></weakClassifiers></_>
    <!-- stage 2 -->
    <_>
      <maxWeakCount>7</maxWeakCount>
      <stageThreshold>-5.9743326902389526e-01</stageThreshold>
      <weakClassifiers>
        <_>
          <internalNodes>
            0 -1 0 1.0437311604619026e-02</internalNodes>
          <leafValues>
            -9.7457629442214966e-01 5.3405570983886719e-01</leafValues></_>
        <_>
          <internalNodes>
            0 -1 5 -6.2722479924559593e-03</internalNodes>
          <leafValues>
            9.3810939788818359e-01 -5.7193166017532349e-01</leafValues></_>
        <_>
          <internalNodes>
            0 -1 19 -4.9895239062607288e-03</internalNodes>
          <leafValues>
            -9.2564332485198975e-01 4.6638539433479309e-01</leafValues></_>
        <_>
          <internalNodes>
            0 -1 7 -4.8419758677482605e-03</internalNodes>
          <leafValues>
            9.5289069414138794e-01 -5.0941979885101318e-01</leafValues></_>
        <_>
          <internalNodes>
            0 -1 3 4.0240265429019928e-02</internalNodes>
          <leafValues>
            5.6332254409790039e-01 -9.7557193040847778e-01</leafValues></_>
        <_>
          <internalNodes>
            0 -1 16 -2.6689365506172180e-02</internalNodes>
          <leafValues>
            9.5621013641357422e-01 -6.5044564008712769e-01</leafValues></_>
        <_>
          <internalNodes>
            0 -1 12 -2.4861682206392288e-02</internalNodes>
          <leafValues>
            9.1992545127868652e-01 -4.3080887198448181e-01</leafValues></_></weakClassifiers></_></stages>
  <features>
    <_>
      <rects>
        <_>
          0 0 20 12 -1.</_>
        <_>
          0 4 20 4 3.</_></rects>
      <tilted>0</tilted></_>
    <_>
      <rects>
        <_>
          0 15 20 5 -1.</_>
        <_>
          5 15 10 5 2.</_></rects>
      <tilted>0</tilted></_>
    <_>
      <rects>
        <_>
          2 4 17 12 -1.</_>
        <_>
          2 10 17 6 2.</_></rects>
      <tilted>0</tilted></_>
    <_>
      <rects>
        <_>
          2 5 12 10 -1.</_>
        <_>
          8 5 6 10 2.</_></rects>
      <tilted>0</tilted></_>
    <_>
      <rects>
        <_>
          3 2 14 18 -1.</_>
        <_>
          3 11 14 9 2.</_></rects>
      <tilted>0</tilted></_>
    <_>
      <rects>
        <_>
          5 10 1 3 -1.</_>
        <_>
          5 11 1 1 3.</_></rects>
      <tilted>0</tilted></_>
    <_>
      <rects>
        <_>
          5 11 3 3 -1.</_>
        <_>
          6 12 1 1 9.</_></rects>
      <tilted>0</tilted></_>
    <_>
      <rects>
        <_>
          6 6 2 2 -1.</_>
        <_>
          6 6 1 1 2.</_>
        <_>
          7 7 1 1 2.</_></rects>
      <tilted>0</tilted></_>
    <_>
      <rects>
        <_>
          6 8 3 1 -1.</_>
        <_>
          7 8 1 1 3.</_></rects>
      <tilted>0</tilted></_>
    <_>
      <rects>
        <_>
          7 6 3 1 -1.</_>
        <_>
          8 6 1 1 3.</_></rects>
      <tilted>0</tilted></_>
    <_>
      <rects>
        <_>
          7 9 6 3 -1.</_>
        <_>
          9 10 2 1 9.</_></rects>
      <tilted>0</tilted></_>
    <_>
      <rects>
        <_>
          7 13 3 1 -1.</_>
        <_>
          8 13 1 1 3.</_></rects>
      <tilted>0</tilted></_>
    <_>
      <rects>
        <_>
          8 5 3 3 -1.</_>
        <_>
          9 6 1 1 9.</_></rects>
      <tilted>0</tilted></_>
    <_>
      <rects>
        <_>
          9 7 3 3 -1.</_>
        <_>
          10 8 1 1 9.</_></rects>
      <tilted>0</tilted></_>
    <_>
      <rects>
        <_>
          9 13 3 1 -1.</_>
        <_>
          10 13 1 1 3.</_></rects>
      <tilted>0</tilted></_>
    <_>
      <rects>
        <_>
          10 10 1 2 -1.</_>
        <_>
          10 11 1 1 2.</_></rects>
      <tilted>0</tilted></_>
    <_>
      <rects>
        <_>
          10 11 3 3 -1.</_>
        <_>
          11 12 1 1 9.</_></rects>
      <tilted>0</tilted></_>
    <_>
      <rects>
        <_>
          13 7 1 3 -1.</_>
        <_>
          13 8 1 1 3.</_></rects>
      <tilted>0</tilted></_>
    <_>
      <rects>
        <_>
          13 9 3 3 -1.</_>
        <_>
          13 10 3 1 3.</_></rects>
      <tilted>0</tilted></_>
    <_>
      <rects>
        <_>
          14 4 2 8 -1.</_>
        <_>
          14 4 2 4 2.</_></rects>
      <tilted>1</tilted></_>
    <_>
      <rects>
        <_>
          16 0 4 1 -1.</_>
        <_>
          18 0 2 1 2.</_></rects>
      <tilted>0</tilted></_>
    <_>
      <rects>
        <_>
          17 0 2 1 -1.</_>
        <_>
          18 0 1 1 2.</_></rects>
      <tilted>0</tilted></_>
    <_>
      <rects>
        <_>
          18 0 2 1 -1.</_>
        <_>
          19 0 1 1 2.</_></rects>
      <tilted>0</tilted></_></features></cascade>
</opencv_storage>
