<?xml version="1.0"?>
<opencv_storage>
<cascade>
  <stageType>BOOST</stageType>
  <featureType>HAAR</featureType>
  <height>20</height>
  <width>20</width>
  <stageParams>
    <boostType>GAB</boostType>
    <minHitRate>9.9900001287460327e-01</minHitRate>
    <maxFalseAlarm>5.0000000745058060e-02</maxFalseAlarm>
    <weightTrimRate>9.4999999999999996e-01</weightTrimRate>
    <maxDepth>1</maxDepth>
    <maxWeakCount>100</maxWeakCount></stageParams>
  <featureParams>
    <maxCatCount>0</maxCatCount>
    <featSize>1</featSize>
    <mode>ALL</mode></featureParams>
  <stageNum>3</stageNum>
  <stages>
    <!-- stage 0 -->
    <_>
      <maxWeakCount>7</maxWeakCount>
      <stageThreshold>-4.4207856059074402e-01</stageThreshold>
      <weakClassifiers>
        <_>
          <internalNodes>
            0 -1 11 1.3600292615592480e-02</internalNodes>
          <leafValues>
            -7.0027250051498413e-01 8.5761958360671997e-01</leafValues></_>
        <_>
          <internalNodes>
            0 -1 6 3.8941618986427784e-03</internalNodes>
          <leafValues>
            -5.4890024662017822e-01 9.5165014266967773e-01</leafValues></_>
        <_>
          <internalNodes>
            0 -1 1 1.7332762479782104e-02</internalNodes>
          <leafValues>
            -8.9949876070022583e-01 5.9810960292816162e-01</leafValues></_>
        <_>
          <internalNodes>
            0 -1 7 -2.1616686135530472e-02</internalNodes>
          <leafValues>
            7.6134598255157471e-01 -6.3211703300476074e-01</leafValues></_>
        <_>
          <internalNodes>
            0 -1 9 -5.5590583942830563e-03</internalNodes>
          <leafValues>
            9.5145010948181152e-01 -4.7776958346366882e-01</leafValues></_>
        <_>
          <internalNodes>
            0 -1 8 4.1774660348892212e-03</internalNodes>
          <leafValues>
            -5.3650110960006714e-01 9.2593765258789062e-01</leafValues></_>
        <_>
          <internalNodes>
            0 -1 2 -1.8415685190120712e-05</internalNodes>
          <leafValues>
            -1. 5.3029793500900269e-01</leafValues></_></weakClassifiers></_>
    <!-- stage 1 -->
    <_>
      <maxWeakCount>7</maxWeakCount>
      <stageThreshold>-3.7230148911476135e-02</stageThreshold>
      <weakClassifiers>
        <_>
          <internalNodes>
            0 -1 2 1.9184662960469723e-05</internalNodes>
          <leafValues>
            5.7356411218643188e-01 -1.</leafValues></_>
        <_>
          <internalNodes>
            0 -1 15 -6.0001043602824211e-03</internalNodes>
          <leafValues>
            9.3968385457992554e-01 -6.4711987972259521e-01</leafValues></_>
        <_>
          <internalNodes>
            0 -1 13 3.1439154408872128e-03</internalNodes>
          <leafValues>
            -5.6630063056945801e-01 8.0581456422805786e-01</leafValues></_>
        <_>
          <internalNodes>
            0 -1 12 -5.9494869783520699e-03</internalNodes>
          <leafValues>
            9.5886820554733276e-01 -4.4095870852470398e-01</leafValues></_>
        <_>
          <internalNodes>
            0 -1 10 5.5693075992166996e-03</internalNodes>
          <leafValues>
            -4.3453714251518250e-01 9.6885484457015991e-01</leafValues></_>
        <_>
          <internalNodes>
            0 -1 16 -4.4811138650402427e-05</internalNodes>
          <leafValues>
            -9.9282115697860718e-01 5.6289070844650269e-01</leafValues></_>
        <_>
          <internalNodes>
            0 -1 5 -5.5325869470834732e-03</internalNodes>
          <leafValues>
            1. -4.8459556698799133e-01</leafValues></_></weakClassifiers></_>
    <!-- stage 2 -->
    <_>
      <maxWeakCount>6</maxWeakCount>
      <stageThreshold>1.9398669898509979e-01</stageThreshold>
      <weakClassifiers>
        <_>
          <internalNodes>
            0 -1 3 2.6588968932628632e-02</internalNodes>
          <leafValues>
            5.7717043161392212e-01 -9.4973546266555786e-01</leafValues></_>
        <_>
          <internalNodes>
            0 -1 4 -5.5594015866518021e-03</internalNodes>
          <leafValues>
            9.5479780435562134e-01 -6.3679504394531250e-01</leafValues></_>
        <_>
          <internalNodes>
            0 -1 2 -2.8541275241877884e-05</internalNodes>
          <leafValues>
            -1. 4.8040056228637695e-01</leafValues></_>
        <_>
          <internalNodes>
            0 -1 17 3.6616285797208548e-05</internalNodes>
          <leafValues>
            4.1403073072433472e-01 -1.</leafValues></_>
        <_>
          <internalNodes>
            0 -1 0 -1.5861168503761292e-02</internalNodes>
          <leafValues>
            4.9478259682655334e-01 -8.1401014328002930e-01</leafValues></_>
        <_>
          <internalNodes>
            0 -1 14 -2.9288304969668388e-02</internalNodes>
          <leafValues>
            -9.8176527023315430e-01 3.9130330085754395e-01</leafValues></_></weakClassifiers></_></stages>
  <features>
    <_>
      <rects>
        <_>
          0 14 7 6 -1.</_>
        <_>
          0 17 7 3 2.</_></rects>
      <tilted>0</tilted></_>
    <_>
      <rects>
        <_>
          0 15 20 5 -1.</_>
        <_>
          5 15 10 5 2.</_></rects>
      <tilted>0</tilted></_>
    <_>
      <rects>
        <_>
          0 18 1 2 -1.</_>
        <_>
          0 19 1 1 2.</_></rects>
      <tilted>0</tilted></_>
    <_>
      <rects>
        <_>
          2 2 14 11 -1.</_>
        <_>
          9 2 7 11 2.</_></rects>
      <tilted>0</tilted></_>
    <_>
      <rects>
        <_>
          5 10 1 3 -1.</_>
        <_>
          5 11 1 1 3.</_></rects>
      <tilted>0</tilted></_>
    <_>
      <rects>
        <_>
          6 6 2 2 -1.</_>
        <_>
          6 6 1 1 2.</_>
        <_>
          7 7 1 1 2.</_></rects>
      <tilted>0</tilted></_>
    <_>
      <rects>
        <_>
          6 8 3 1 -1.</_>
        <_>
          7 8 1 1 3.</_></rects>
      <tilted>0</tilted></_>
    <_>
      <rects>
        <_>
          7 9 6 3 -1.</_>
        <_>
          9 10 2 1 9.</_></rects>
      <tilted>0</tilted></_>
    <_>
      <rects>
        <_>
          7 13 3 1 -1.</_>
        <_>
          8 13 1 1 3.</_></rects>
      <tilted>0</tilted></_>
    <_>
      <rects>
        <_>
          8 6 3 1 -1.</_>
        <_>
          9 6 1 1 3.</_></rects>
      <tilted>0</tilted></_>
    <_>
      <rects>
        <_>
          8 7 3 1 -1.</_>
        <_>
          9 7 1 1 3.</_></rects>
      <tilted>0</tilted></_>
    <_>
      <rects>
        <_>
          9 7 3 3 -1.</_>
        <_>
          10 8 1 1 9.</_></rects>
      <tilted>0</tilted></_>
    <_>
      <rects>
        <_>
          9 13 3 1 -1.</_>
        <_>
          10 13 1 1 3.</_></rects>
      <tilted>0</tilted></_>
    <_>
      <rects>
        <_>
          10 10 1 3 -1.</_>
        <_>
          10 11 1 1 3.</_></rects>
      <tilted>0</tilted></_>
    <_>
      <rects>
        <_>
          13 3 7 8 -1.</_>
        <_>
          13 3 7 4 2.</_></rects>
      <tilted>1</tilted></_>
    <_>
      <rects>
        <_>
          14 7 1 3 -1.</_>
        <_>
          14 8 1 1 3.</_></rects>
      <tilted>0</tilted></_>
    <_>
      <rects>
        <_>
          17 0 3 4 -1.</_>
        <_>
          17 2 3 2 2.</_></rects>
      <tilted>0</tilted></_>
    <_>
      <rects>
        <_>
          18 0 2 2 -1.</_>
        <_>
          19 0 1 2 2.</_></rects>
      <tilted>0</tilted></_></features></cascade>
</opencv_storage>
