<?xml version="1.0"?>
<opencv_storage>
<stage0>
  <maxWeakCount>7</maxWeakCount>
  <stageThreshold>-5.2068674564361572e-01</stageThreshold>
  <weakClassifiers>
    <_>
      <internalNodes>
        0 -1 61276 3.8899208884686232e-03</internalNodes>
      <leafValues>
        -5.8387094736099243e-01 9.5263159275054932e-01</leafValues></_>
    <_>
      <internalNodes>
        0 -1 84176 1.1422170326113701e-02</internalNodes>
      <leafValues>
        -6.3759207725524902e-01 8.5760992765426636e-01</leafValues></_>
    <_>
      <internalNodes>
        0 -1 9444 1.7184183001518250e-02</internalNodes>
      <leafValues>
        -8.8815748691558838e-01 5.7094514369964600e-01</leafValues></_>
    <_>
      <internalNodes>
        0 -1 69940 -1.2014731764793396e-02</internalNodes>
      <leafValues>
        5.8189922571182251e-01 -8.2549363374710083e-01</leafValues></_>
    <_>
      <internalNodes>
        0 -1 86239 -6.4429575577378273e-03</internalNodes>
      <leafValues>
        9.9506008625030518e-01 -5.2347069978713989e-01</leafValues></_>
    <_>
      <internalNodes>
        0 -1 71252 5.0126854330301285e-03</internalNodes>
      <leafValues>
        -5.1830136775970459e-01 9.5328778028488159e-01</leafValues></_>
    <_>
      <internalNodes>
        0 -1 118529 2.0196841433062218e-05</internalNodes>
      <leafValues>
        5.8970391750335693e-01 -1.</leafValues></_></weakClassifiers></stage0>
</opencv_storage>
