<?xml version="1.0"?>
<opencv_storage>
<stage0>
  <maxWeakCount>7</maxWeakCount>
  <stageThreshold>-2.9140326380729675e-01</stageThreshold>
  <weakClassifiers>
    <_>
      <internalNodes>
        0 -1 61276 3.8905008696019650e-03</internalNodes>
      <leafValues>
        -5.5996823310852051e-01 9.5141702890396118e-01</leafValues></_>
    <_>
      <internalNodes>
        0 -1 84176 1.4790654182434082e-02</internalNodes>
      <leafValues>
        -5.8988207578659058e-01 8.8636791706085205e-01</leafValues></_>
    <_>
      <internalNodes>
        0 -1 9444 1.3358299620449543e-02</internalNodes>
      <leafValues>
        -9.4712430238723755e-01 5.6699496507644653e-01</leafValues></_>
    <_>
      <internalNodes>
        0 -1 69940 -2.1582797169685364e-02</internalNodes>
      <leafValues>
        7.6115620136260986e-01 -6.2940549850463867e-01</leafValues></_>
    <_>
      <internalNodes>
        0 -1 86239 -5.9286560863256454e-03</internalNodes>
      <leafValues>
        9.8493194580078125e-01 -4.6999084949493408e-01</leafValues></_>
    <_>
      <internalNodes>
        0 -1 71252 4.1097970679402351e-03</internalNodes>
      <leafValues>
        -5.1722437143325806e-01 9.2596155405044556e-01</leafValues></_>
    <_>
      <internalNodes>
        0 -1 424 1.8680388107895851e-02</internalNodes>
      <leafValues>
        -8.9954251050949097e-01 5.9312671422958374e-01</leafValues></_></weakClassifiers></stage0>
</opencv_storage>
