<?xml version="1.0"?>
<opencv_storage>
<stage0>
  <maxWeakCount>7</maxWeakCount>
  <stageThreshold>-4.4207856059074402e-01</stageThreshold>
  <weakClassifiers>
    <_>
      <internalNodes>
        0 -1 84176 1.3600292615592480e-02</internalNodes>
      <leafValues>
        -7.0027250051498413e-01 8.5761958360671997e-01</leafValues></_>
    <_>
      <internalNodes>
        0 -1 61276 3.8941618986427784e-03</internalNodes>
      <leafValues>
        -5.4890024662017822e-01 9.5165014266967773e-01</leafValues></_>
    <_>
      <internalNodes>
        0 -1 9444 1.7332762479782104e-02</internalNodes>
      <leafValues>
        -8.9949876070022583e-01 5.9810960292816162e-01</leafValues></_>
    <_>
      <internalNodes>
        0 -1 69940 -2.1616686135530472e-02</internalNodes>
      <leafValues>
        7.6134598255157471e-01 -6.3211703300476074e-01</leafValues></_>
    <_>
      <internalNodes>
        0 -1 76292 -5.5590583942830563e-03</internalNodes>
      <leafValues>
        9.5145010948181152e-01 -4.7776958346366882e-01</leafValues></_>
    <_>
      <internalNodes>
        0 -1 71252 4.1774660348892212e-03</internalNodes>
      <leafValues>
        -5.3650110960006714e-01 9.2593765258789062e-01</leafValues></_>
    <_>
      <internalNodes>
        0 -1 9856 -1.8415685190120712e-05</internalNodes>
      <leafValues>
        -1. 5.3029793500900269e-01</leafValues></_></weakClassifiers></stage0>
</opencv_storage>
