<?xml version="1.0"?>
<opencv_storage>
<stage1>
  <maxWeakCount>8</maxWeakCount>
  <stageThreshold>-3.4733352065086365e-01</stageThreshold>
  <weakClassifiers>
    <_>
      <internalNodes>
        0 -1 91457 -2.3209759965538979e-03</internalNodes>
      <leafValues>
        7.7412283420562744e-01 -6.4889705181121826e-01</leafValues></_>
    <_>
      <internalNodes>
        0 -1 61276 4.4015212915837765e-03</internalNodes>
      <leafValues>
        -5.5440181493759155e-01 8.4777003526687622e-01</leafValues></_>
    <_>
      <internalNodes>
        0 -1 9225 -1.3656734488904476e-02</internalNodes>
      <leafValues>
        5.3725206851959229e-01 -8.3732235431671143e-01</leafValues></_>
    <_>
      <internalNodes>
        0 -1 32483 1.0697340965270996e-01</internalNodes>
      <leafValues>
        4.0071409940719604e-01 -9.5486724376678467e-01</leafValues></_>
    <_>
      <internalNodes>
        0 -1 3 -6.1493548855651170e-05</internalNodes>
      <leafValues>
        -9.8377567529678345e-01 3.3708143234252930e-01</leafValues></_>
    <_>
      <internalNodes>
        0 -1 86237 -5.4050087928771973e-03</internalNodes>
      <leafValues>
        9.8448377847671509e-01 -4.8625132441520691e-01</leafValues></_>
    <_>
      <internalNodes>
        0 -1 83170 -1.2895558029413223e-02</internalNodes>
      <leafValues>
        9.8148286342620850e-01 -5.4272836446762085e-01</leafValues></_>
    <_>
      <internalNodes>
        0 -1 3 2.0401923393364996e-05</internalNodes>
      <leafValues>
        6.0989743471145630e-01 -1.</leafValues></_></weakClassifiers></stage1>
</opencv_storage>
