<?xml version="1.0"?>
<opencv_storage>
<stage2>
  <maxWeakCount>5</maxWeakCount>
  <stageThreshold>-3.4949399530887604e-02</stageThreshold>
  <weakClassifiers>
    <_>
      <internalNodes>
        0 -1 113927 -6.4959130249917507e-03</internalNodes>
      <leafValues>
        9.4436311721801758e-01 -4.8974943161010742e-01</leafValues></_>
    <_>
      <internalNodes>
        0 -1 62206 -6.2222266569733620e-03</internalNodes>
      <leafValues>
        9.4975382089614868e-01 -3.8378328084945679e-01</leafValues></_>
    <_>
      <internalNodes>
        0 -1 115714 -5.0955444574356079e-02</internalNodes>
      <leafValues>
        1. -4.0595319867134094e-01</leafValues></_>
    <_>
      <internalNodes>
        0 -1 3 -3.6740668292623013e-05</internalNodes>
      <leafValues>
        -9.7012120485305786e-01 5.6931293010711670e-01</leafValues></_>
    <_>
      <internalNodes>
        0 -1 86004 -2.6655729860067368e-02</internalNodes>
      <leafValues>
        9.2494201660156250e-01 -5.5299192667007446e-01</leafValues></_></weakClassifiers></stage2>
</opencv_storage>
