<?xml version="1.0"?>
<opencv_storage>
<stage2>
  <maxWeakCount>7</maxWeakCount>
  <stageThreshold>-5.9743326902389526e-01</stageThreshold>
  <weakClassifiers>
    <_>
      <internalNodes>
        0 -1 965 1.0437311604619026e-02</internalNodes>
      <leafValues>
        -9.7457629442214966e-01 5.3405570983886719e-01</leafValues></_>
    <_>
      <internalNodes>
        0 -1 53715 -6.2722479924559593e-03</internalNodes>
      <leafValues>
        9.3810939788818359e-01 -5.7193166017532349e-01</leafValues></_>
    <_>
      <internalNodes>
        0 -1 112264 -4.9895239062607288e-03</internalNodes>
      <leafValues>
        -9.2564332485198975e-01 4.6638539433479309e-01</leafValues></_>
    <_>
      <internalNodes>
        0 -1 60170 -4.8419758677482605e-03</internalNodes>
      <leafValues>
        9.5289069414138794e-01 -5.0941979885101318e-01</leafValues></_>
    <_>
      <internalNodes>
        0 -1 23974 4.0240265429019928e-02</internalNodes>
      <leafValues>
        5.6332254409790039e-01 -9.7557193040847778e-01</leafValues></_>
    <_>
      <internalNodes>
        0 -1 92533 -2.6689365506172180e-02</internalNodes>
      <leafValues>
        9.5621013641357422e-01 -6.5044564008712769e-01</leafValues></_>
    <_>
      <internalNodes>
        0 -1 75700 -2.4861682206392288e-02</internalNodes>
      <leafValues>
        9.1992545127868652e-01 -4.3080887198448181e-01</leafValues></_></weakClassifiers></stage2>
</opencv_storage>
