<?xml version="1.0"?>
<opencv_storage>
<stage2>
  <maxWeakCount>6</maxWeakCount>
  <stageThreshold>1.9398669898509979e-01</stageThreshold>
  <weakClassifiers>
    <_>
      <internalNodes>
        0 -1 21737 2.6588968932628632e-02</internalNodes>
      <leafValues>
        5.7717043161392212e-01 -9.4973546266555786e-01</leafValues></_>
    <_>
      <internalNodes>
        0 -1 53715 -5.5594015866518021e-03</internalNodes>
      <leafValues>
        9.5479780435562134e-01 -6.3679504394531250e-01</leafValues></_>
    <_>
      <internalNodes>
        0 -1 9856 -2.8541275241877884e-05</internalNodes>
      <leafValues>
        -1. 4.8040056228637695e-01</leafValues></_>
    <_>
      <internalNodes>
        0 -1 123561 3.6616285797208548e-05</internalNodes>
      <leafValues>
        4.1403073072433472e-01 -1.</leafValues></_>
    <_>
      <internalNodes>
        0 -1 9225 -1.5861168503761292e-02</internalNodes>
      <leafValues>
        4.9478259682655334e-01 -8.1401014328002930e-01</leafValues></_>
    <_>
      <internalNodes>
        0 -1 107386 -2.9288304969668388e-02</internalNodes>
      <leafValues>
        -9.8176527023315430e-01 3.9130330085754395e-01</leafValues></_></weakClassifiers></stage2>
</opencv_storage>
