<?xml version="1.0"?>
<opencv_storage>
<stage1>
  <maxWeakCount>6</maxWeakCount>
  <stageThreshold>-1.0275377035140991e+00</stageThreshold>
  <weakClassifiers>
    <_>
      <internalNodes>
        0 -1 53715 -5.4155755788087845e-03</internalNodes>
      <leafValues>
        9.2826396226882935e-01 -4.9654641747474670e-01</leafValues></_>
    <_>
      <internalNodes>
        0 -1 961 2.1344963461160660e-02</internalNodes>
      <leafValues>
        -9.6408289670944214e-01 5.1664960384368896e-01</leafValues></_>
    <_>
      <internalNodes>
        0 -1 68325 4.7906329855322838e-03</internalNodes>
      <leafValues>
        -5.8874446153640747e-01 8.4254390001296997e-01</leafValues></_>
    <_>
      <internalNodes>
        0 -1 18781 -2.4392228573560715e-02</internalNodes>
      <leafValues>
        4.6763527393341064e-01 -9.2694032192230225e-01</leafValues></_>
    <_>
      <internalNodes>
        0 -1 70507 -1.9216421991586685e-02</internalNodes>
      <leafValues>
        9.3319410085678101e-01 -4.4529518485069275e-01</leafValues></_>
    <_>
      <internalNodes>
        0 -1 104084 -2.5894269347190857e-02</internalNodes>
      <leafValues>
        9.6278315782546997e-01 -5.4076993465423584e-01</leafValues></_></weakClassifiers></stage1>
</opencv_storage>
