<?xml version="1.0"?>
<opencv_storage>
<stage2>
  <maxWeakCount>7</maxWeakCount>
  <stageThreshold>-7.6282113790512085e-02</stageThreshold>
  <weakClassifiers>
    <_>
      <internalNodes>
        0 -1 113133 -6.2040211632847786e-03</internalNodes>
      <leafValues>
        9.0177351236343384e-01 -5.2170479297637939e-01</leafValues></_>
    <_>
      <internalNodes>
        0 -1 125198 -3.5643006413010880e-05</internalNodes>
      <leafValues>
        -1. 4.8058706521987915e-01</leafValues></_>
    <_>
      <internalNodes>
        0 -1 99280 -6.1020674183964729e-03</internalNodes>
      <leafValues>
        9.1219496726989746e-01 -5.3672194480895996e-01</leafValues></_>
    <_>
      <internalNodes>
        0 -1 86004 -2.4997659027576447e-02</internalNodes>
      <leafValues>
        9.4694924354553223e-01 -4.3329492211341858e-01</leafValues></_>
    <_>
      <internalNodes>
        0 -1 76353 -1.9643098115921021e-02</internalNodes>
      <leafValues>
        9.6850508451461792e-01 -3.8461977243423462e-01</leafValues></_>
    <_>
      <internalNodes>
        0 -1 125198 3.6241282941773534e-05</internalNodes>
      <leafValues>
        5.2845120429992676e-01 -1.</leafValues></_>
    <_>
      <internalNodes>
        0 -1 92797 5.5842516012489796e-03</internalNodes>
      <leafValues>
        -5.6210374832153320e-01 9.5005339384078979e-01</leafValues></_></weakClassifiers></stage2>
</opencv_storage>
