<?xml version="1.0"?>
<opencv_storage>
<stage1>
  <maxWeakCount>9</maxWeakCount>
  <stageThreshold>-6.6180592775344849e-01</stageThreshold>
  <weakClassifiers>
    <_>
      <internalNodes>
        0 -1 68325 3.9363391697406769e-03</internalNodes>
      <leafValues>
        -6.0066831111907959e-01 8.9539229869842529e-01</leafValues></_>
    <_>
      <internalNodes>
        0 -1 121524 -3.5141085390932858e-05</internalNodes>
      <leafValues>
        -9.3524610996246338e-01 6.0954207181930542e-01</leafValues></_>
    <_>
      <internalNodes>
        0 -1 54129 1.7590399831533432e-02</internalNodes>
      <leafValues>
        -6.0581505298614502e-01 8.7451738119125366e-01</leafValues></_>
    <_>
      <internalNodes>
        0 -1 123552 -1.9547444026102312e-05</internalNodes>
      <leafValues>
        -1. 4.9510347843170166e-01</leafValues></_>
    <_>
      <internalNodes>
        0 -1 92213 3.3807470463216305e-03</internalNodes>
      <leafValues>
        -5.6791466474533081e-01 8.5126131772994995e-01</leafValues></_>
    <_>
      <internalNodes>
        0 -1 108502 -6.0733435675501823e-03</internalNodes>
      <leafValues>
        9.6883630752563477e-01 -5.4398840665817261e-01</leafValues></_>
    <_>
      <internalNodes>
        0 -1 31367 5.0935082137584686e-02</internalNodes>
      <leafValues>
        5.3559631109237671e-01 -9.9379593133926392e-01</leafValues></_>
    <_>
      <internalNodes>
        0 -1 109246 1.9097095355391502e-02</internalNodes>
      <leafValues>
        -5.3278207778930664e-01 9.9568319320678711e-01</leafValues></_>
    <_>
      <internalNodes>
        0 -1 23532 -4.2115911841392517e-02</internalNodes>
      <leafValues>
        -9.9344736337661743e-01 5.9784835577011108e-01</leafValues></_></weakClassifiers></stage1>
</opencv_storage>
